digraph Tree {
node [shape=box, style="filled, rounded", color="black", fontname=helvetica] ;
edge [fontname=helvetica] ;
0 [label="worst concave points <= 0.147\ngini = 0.466\nsamples = 455\nvalue = [168, 287]\nclass = benign", fillcolor="#399de56a"] ;
1 [label="worst area <= 929.8\ngini = 0.17\nsamples = 310\nvalue = [29, 281]\nclass = benign", fillcolor="#399de5e5"] ;
0 -> 1 [labeldistance=2.5, labelangle=45, headlabel="True"] ;
2 [label="worst concave points <= 0.111\ngini = 0.067\nsamples = 287\nvalue = [10, 277]\nclass = benign", fillcolor="#399de5f6"] ;
1 -> 2 ;
3 [label="area error <= 48.975\ngini = 0.008\nsamples = 248\nvalue = [1, 247]\nclass = benign", fillcolor="#399de5fe"] ;
2 -> 3 ;
4 [label="gini = 0.0\nsamples = 244\nvalue = [0, 244]\nclass = benign", fillcolor="#399de5ff"] ;
3 -> 4 ;
5 [label="worst perimeter <= 87.07\ngini = 0.375\nsamples = 4\nvalue = [1, 3]\nclass = benign", fillcolor="#399de5aa"] ;
3 -> 5 ;
6 [label="gini = 0.0\nsamples = 1\nvalue = [1, 0]\nclass = malignant", fillcolor="#e58139ff"] ;
5 -> 6 ;
7 [label="gini = 0.0\nsamples = 3\nvalue = [0, 3]\nclass = benign", fillcolor="#399de5ff"] ;
5 -> 7 ;
8 [label="worst texture <= 33.23\ngini = 0.355\nsamples = 39\nvalue = [9, 30]\nclass = benign", fillcolor="#399de5b3"] ;
2 -> 8 ;
9 [label="mean fractal dimension <= 0.056\ngini = 0.245\nsamples = 35\nvalue = [5, 30]\nclass = benign", fillcolor="#399de5d4"] ;
8 -> 9 ;
10 [label="gini = 0.0\nsamples = 3\nvalue = [3, 0]\nclass = malignant", fillcolor="#e58139ff"] ;
9 -> 10 ;
11 [label="concavity error <= 0.018\ngini = 0.117\nsamples = 32\nvalue = [2, 30]\nclass = benign", fillcolor="#399de5ee"] ;
9 -> 11 ;
12 [label="concavity error <= 0.016\ngini = 0.5\nsamples = 2\nvalue = [1, 1]\nclass = malignant", fillcolor="#e5813900"] ;
11 -> 12 ;
13 [label="gini = 0.0\nsamples = 1\nvalue = [0, 1]\nclass = benign", fillcolor="#399de5ff"] ;
12 -> 13 ;
14 [label="gini = 0.0\nsamples = 1\nvalue = [1, 0]\nclass = malignant", fillcolor="#e58139ff"] ;
12 -> 14 ;
15 [label="area error <= 33.94\ngini = 0.064\nsamples = 30\nvalue = [1, 29]\nclass = benign", fillcolor="#399de5f6"] ;
11 -> 15 ;
16 [label="gini = 0.0\nsamples = 27\nvalue = [0, 27]\nclass = benign", fillcolor="#399de5ff"] ;
15 -> 16 ;
17 [label="worst texture <= 20.2\ngini = 0.444\nsamples = 3\nvalue = [1, 2]\nclass = benign", fillcolor="#399de57f"] ;
15 -> 17 ;
18 [label="gini = 0.0\nsamples = 2\nvalue = [0, 2]\nclass = benign", fillcolor="#399de5ff"] ;
17 -> 18 ;
19 [label="gini = 0.0\nsamples = 1\nvalue = [1, 0]\nclass = malignant", fillcolor="#e58139ff"] ;
17 -> 19 ;
20 [label="gini = 0.0\nsamples = 4\nvalue = [4, 0]\nclass = malignant", fillcolor="#e58139ff"] ;
8 -> 20 ;
21 [label="mean texture <= 18.6\ngini = 0.287\nsamples = 23\nvalue = [19, 4]\nclass = malignant", fillcolor="#e58139c9"] ;
1 -> 21 ;
22 [label="mean compactness <= 0.099\ngini = 0.375\nsamples = 4\nvalue = [1, 3]\nclass = benign", fillcolor="#399de5aa"] ;
21 -> 22 ;
23 [label="gini = 0.0\nsamples = 3\nvalue = [0, 3]\nclass = benign", fillcolor="#399de5ff"] ;
22 -> 23 ;
24 [label="gini = 0.0\nsamples = 1\nvalue = [1, 0]\nclass = malignant", fillcolor="#e58139ff"] ;
22 -> 24 ;
25 [label="worst smoothness <= 0.088\ngini = 0.1\nsamples = 19\nvalue = [18, 1]\nclass = malignant", fillcolor="#e58139f1"] ;
21 -> 25 ;
26 [label="gini = 0.0\nsamples = 1\nvalue = [0, 1]\nclass = benign", fillcolor="#399de5ff"] ;
25 -> 26 ;
27 [label="gini = 0.0\nsamples = 18\nvalue = [18, 0]\nclass = malignant", fillcolor="#e58139ff"] ;
25 -> 27 ;
28 [label="mean perimeter <= 72.515\ngini = 0.079\nsamples = 145\nvalue = [139, 6]\nclass = malignant", fillcolor="#e58139f4"] ;
0 -> 28 [labeldistance=2.5, labelangle=-45, headlabel="False"] ;
29 [label="gini = 0.0\nsamples = 3\nvalue = [0, 3]\nclass = benign", fillcolor="#399de5ff"] ;
28 -> 29 ;
30 [label="worst smoothness <= 0.097\ngini = 0.041\nsamples = 142\nvalue = [139, 3]\nclass = malignant", fillcolor="#e58139f9"] ;
28 -> 30 ;
31 [label="gini = 0.0\nsamples = 1\nvalue = [0, 1]\nclass = benign", fillcolor="#399de5ff"] ;
30 -> 31 ;
32 [label="worst concavity <= 0.203\ngini = 0.028\nsamples = 141\nvalue = [139, 2]\nclass = malignant", fillcolor="#e58139fb"] ;
30 -> 32 ;
33 [label="gini = 0.0\nsamples = 1\nvalue = [0, 1]\nclass = benign", fillcolor="#399de5ff"] ;
32 -> 33 ;
34 [label="radius error <= 0.247\ngini = 0.014\nsamples = 140\nvalue = [139, 1]\nclass = malignant", fillcolor="#e58139fd"] ;
32 -> 34 ;
35 [label="worst fractal dimension <= 0.087\ngini = 0.278\nsamples = 6\nvalue = [5, 1]\nclass = malignant", fillcolor="#e58139cc"] ;
34 -> 35 ;
36 [label="gini = 0.0\nsamples = 1\nvalue = [0, 1]\nclass = benign", fillcolor="#399de5ff"] ;
35 -> 36 ;
37 [label="gini = 0.0\nsamples = 5\nvalue = [5, 0]\nclass = malignant", fillcolor="#e58139ff"] ;
35 -> 37 ;
38 [label="gini = 0.0\nsamples = 134\nvalue = [134, 0]\nclass = malignant", fillcolor="#e58139ff"] ;
34 -> 38 ;
}